function [y1] = NNFit(x1)
%NNFIT neural network simulation function.
%
% Auto-generated by MATLAB, 15-Apr-2021 16:57:47.
% 
% [y1] = NNFit(x1) takes these arguments:
%   x = 10xQ matrix, input #1
% and returns:
%   y = 1xQ matrix, output #1
% where Q is the number of samples.

%#ok<*RPMT0>

% ===== NEURAL NETWORK CONSTANTS =====

% Input 1
x1_step1.xoffset = [-0.960381876486174;-4.46248802722717;-5.17852887458485;-4.48073715332605;-3.39270547151972;-4.89034267011056;-4.09638956423933;-22.1011864634595;-12.6725101583375;-1.68741224378933];
x1_step1.gain = [0.744587117901481;0.305647520874011;0.217139586607698;0.278754220747781;0.313094454989053;0.224952360464966;0.2398799497799;0.0883066374206199;0.130806471865733;0.582950679298246];
x1_step1.ymin = -1;

% Layer 1
b1 = [0.14367720318601545637;2.6585932597481978235;0.21614754193338026056;-0.77521005365754414029;-0.15016048001209872376;-0.18895893794020338086;0.33334021415001674482;1.0495651391350007131;0.09608445831444172025;0.091400705452594849243;0.9808633719414890928;-2.3640155618252562952;-3.9683753071066560913;2.4716459238704158174;0.9103388722530324495;-1.6445206688436171394;1.7270617641242649309;1.3710565804733929607;-0.83839148097354254663;2.8957307008678130344];
IW1_1 = [-2.4154308174831933265 1.1316734083225514773 -0.18798508993018392399 0.50752499754821289724 0.26643122967183774374 0.18496867771410097081 -0.084381354525935925448 0.07085802248326253383 -0.16205693380690422423 -0.77140106419434217866;-2.5214783316455919859 -0.61767172907865119935 -0.010085000823519651991 -0.17096230134548739965 -0.045858540570502259737 -0.075738671538680010786 0.011697215615493047544 0.89427052368563375584 0.017841955990787663339 0.36230068772579970826;-0.25273389398206069778 0.1998451513359776055 -0.012532406301889509326 -0.38710321317608464842 0.31744353291743737655 0.30392705893160959496 -0.48629036603932135341 -0.38527217222465176549 0.45637964870801228656 -0.0039633153238058721132;-0.14137397926041037066 0.22839219307467162334 0.69305240971952908335 -0.84866491694379209143 1.1527220931617192523 0.94439458980977164515 -0.30465769707891104945 0.37955421319014276405 0.40549188230617233542 -0.45339085921888461206;0.11430828401814195627 -0.11175304651558616575 -0.47704525296752076091 0.64561656700497560557 -0.916648058594788262 -0.7749657348705597526 0.31298468285909419873 0.54810711313383120302 -0.44114123533557358936 0.31640372701778679554;0.068730081107593654632 0.15546512469078524465 0.050894605481055565921 -0.18914112137188648921 0.018993525551347312241 0.19626799805238009933 -0.03532588208090964299 0.055668577385928771917 0.084229796875306933712 -0.26300932511266794656;2.6071271914854570184 1.4513736888071724351 0.0074584607403650983112 0.033216876158219783843 0.42244033655690699236 0.38798092469935352433 -0.15221425801286470048 0.38258859113757298642 0.73193461514120727873 -1.3507173453150382869;-0.028825152288339869061 -2.2081808752373786042 -0.061859892727623107256 -0.24630047120646228476 -0.14981246649827839601 -0.034852738621890928805 -0.030574791510504781278 0.037204871248042073462 -0.16536073768499864878 1.4525224141871446726;1.9848749283793558629 -0.65087570179592324493 -0.015401431195047120964 0.033833379986935939454 0.24766683536891354045 0.23619359560874905735 -0.061828332005150851702 1.3513681000858552839 0.474773459888372662 -0.10609490256059561641;-0.036487529426405596045 -0.97950882073050538068 0.13802254156185905787 0.51835177883852656677 0.5464992554107237499 -0.40436909977663293425 0.054607279876782710559 0.2782474473205402421 -0.15734213693163773273 0.19478347868992934577;1.0475016718182594833 2.6268066719483176286 0.10555368421258967682 0.39987028553426201549 0.18887696676464152401 0.070115438039725697106 0.059914126014487971428 -0.4542320291164952395 0.32303468224857806446 -1.6871729733077229785;2.7529274108906229834 -0.76501478843559456156 0.0018168068356873841133 -0.18797317063029567175 -0.056699649112672743934 -0.029790717506350518351 0.0098212456763821752437 -1.0800017164180586438 0.12325875968482226386 0.51340772757722163977;-4.5690876368247836936 0.29730258463782233136 0.021112838346440350457 -0.10558917971050130191 -0.12168972717260564953 0.0058857480734283767684 -0.081390986053868324968 -2.0464715164136473291 0.10785277117965144655 0.13108614636486201621;-4.8994890602218816866 0.35234830166711450516 -0.010013370059842452778 0.070144745130894969876 0.046229090500515740425 0.0041134165261851622294 -0.024505471792468629805 2.3295584707548151471 -0.18538945206563731127 -0.24224570259646180381;1.2615286870191546598 -0.11816400022351983279 -0.078271926206767192258 0.00040698798715488505471 0.12261647857164348352 -0.025018061970269584587 0.06275488348053152865 1.1711207094070865686 -0.15128987683747979753 0.011625717221515827204;0.25536351914056132362 1.5069046552312748144 0.040419707542304748882 -0.017552326786328720926 0.2518564757364556983 0.15937380698629941 -0.023214434568652780183 0.67048552164710273349 0.19329951559387478777 -1.2091523245907629391;1.4177390842659385317 -0.05695648275691699014 -0.10986006754139095165 -0.019963781991928088166 -0.13614685136084950234 -0.35015709512873327558 0.13999639673564417963 0.4251125746769744973 -0.8814843316401170803 0.1666711241041228253;0.41968287139809840047 -2.6683330419759339058 -0.098395196139792875933 -0.41495981268258286256 -0.11880388438818172137 0.011362744772546578068 -0.03973014734543630494 -0.50920599962215373768 -0.053892242227375410091 1.6413468033934477397;-1.3231026141444686139 -1.8493906165810243269 -0.056111174375088730681 -0.14865803431058338679 -0.14887176618909070402 -0.071243715652375777525 -0.020647144186653382941 0.35039232222030086694 -0.26197868120861045327 1.2119089090990931012;-4.9902268121632555875 -0.4172149111317444703 -0.0015895483878233280118 -0.15307047671214385476 -0.02357680456433861732 -0.066690710366615932325 -0.010463477723396974808 2.27970201198322453 -0.10341726132984332964 0.25867357616550795685];

% Layer 2
b2 = -1.3850185588017143168;
LW2_1 = [-0.17239018609501124968 -2.4686570038789317216 -0.28132495741565127778 -0.65952833029270596654 -1.1372584731091543997 -1.9460586966551658428 -0.41574234276122307152 1.7184263126322130155 0.77527660655890684449 -0.38169495762906624492 -1.1742597402214667301 -2.7883027491604210901 -1.9903053748364492037 -2.069048211694330508 -2.037627117462171622 0.86637931156103764607 0.53376422641646292799 -0.94540883414461107659 -1.9486075433738543339 2.0027264449775534771];

% Output 1
y1_step1.ymin = -1;
y1_step1.gain = 0.677942953516802;
y1_step1.xoffset = -1.24456183373413;

% ===== SIMULATION ========

% Dimensions
Q = size(x1,2); % samples

% Input 1
xp1 = mapminmax_apply(x1,x1_step1);

% Layer 1
a1 = tansig_apply(repmat(b1,1,Q) + IW1_1*xp1);

% Layer 2
a2 = repmat(b2,1,Q) + LW2_1*a1;

% Output 1
y1 = mapminmax_reverse(a2,y1_step1);
end

% ===== MODULE FUNCTIONS ========

% Map Minimum and Maximum Input Processing Function
function y = mapminmax_apply(x,settings)
  y = bsxfun(@minus,x,settings.xoffset);
  y = bsxfun(@times,y,settings.gain);
  y = bsxfun(@plus,y,settings.ymin);
end

% Sigmoid Symmetric Transfer Function
function a = tansig_apply(n,~)
  a = 2 ./ (1 + exp(-2*n)) - 1;
end

% Map Minimum and Maximum Output Reverse-Processing Function
function x = mapminmax_reverse(y,settings)
  x = bsxfun(@minus,y,settings.ymin);
  x = bsxfun(@rdivide,x,settings.gain);
  x = bsxfun(@plus,x,settings.xoffset);
end
